#pragma once
#include <cstdarg>
namespace Eloquent {
    namespace ML {
        namespace Port {
            class RandomForest {
                public:
                    /**
                    * Predict class for features vector
                    */
                    int predict(float *x) {
                        uint8_t votes[6] = { 0 };
                        // tree #1
                        if (x[1] <= 5.450000047683716) {
                            if (x[0] <= -5.649999976158142) {
                                votes[2] += 1;
                            }

                            else {
                                votes[4] += 1;
                            }
                        }

                        else {
                            if (x[0] <= -1.3700000047683716) {
                                if (x[2] <= 3.7050000429153442) {
                                    if (x[0] <= -5.235000014305115) {
                                        votes[3] += 1;
                                    }

                                    else {
                                        votes[5] += 1;
                                    }
                                }

                                else {
                                    if (x[0] <= -2.569999933242798) {
                                        if (x[1] <= 8.62999963760376) {
                                            votes[0] += 1;
                                        }

                                        else {
                                            votes[5] += 1;
                                        }
                                    }

                                    else {
                                        votes[0] += 1;
                                    }
                                }
                            }

                            else {
                                if (x[2] <= 4.254999995231628) {
                                    votes[0] += 1;
                                }

                                else {
                                    votes[1] += 1;
                                }
                            }
                        }

                        // tree #2
                        if (x[1] <= 7.745000123977661) {
                            if (x[0] <= -4.784999966621399) {
                                if (x[2] <= 3.509999990463257) {
                                    if (x[0] <= -8.004999876022339) {
                                        votes[2] += 1;
                                    }

                                    else {
                                        votes[3] += 1;
                                    }
                                }

                                else {
                                    votes[2] += 1;
                                }
                            }

                            else {
                                votes[4] += 1;
                            }
                        }

                        else {
                            if (x[1] <= 9.360000133514404) {
                                if (x[0] <= -2.509999990463257) {
                                    votes[5] += 1;
                                }

                                else {
                                    votes[1] += 1;
                                }
                            }

                            else {
                                if (x[2] <= 5.0) {
                                    if (x[2] <= 3.409999966621399) {
                                        votes[5] += 1;
                                    }

                                    else {
                                        if (x[0] <= -1.9399999380111694) {
                                            if (x[2] <= 4.745000123977661) {
                                                votes[5] += 1;
                                            }

                                            else {
                                                votes[0] += 1;
                                            }
                                        }

                                        else {
                                            if (x[0] <= -0.8849999606609344) {
                                                votes[0] += 1;
                                            }

                                            else {
                                                if (x[1] <= 10.199999809265137) {
                                                    votes[1] += 1;
                                                }

                                                else {
                                                    votes[0] += 1;
                                                }
                                            }
                                        }
                                    }
                                }

                                else {
                                    votes[1] += 1;
                                }
                            }
                        }

                        // tree #3
                        if (x[0] <= -7.9649999141693115) {
                            votes[2] += 1;
                        }

                        else {
                            if (x[1] <= 7.609999895095825) {
                                if (x[2] <= 6.805000185966492) {
                                    votes[3] += 1;
                                }

                                else {
                                    votes[4] += 1;
                                }
                            }

                            else {
                                if (x[2] <= 4.509999990463257) {
                                    if (x[2] <= 4.059999942779541) {
                                        if (x[1] <= 9.670000076293945) {
                                            votes[5] += 1;
                                        }

                                        else {
                                            votes[0] += 1;
                                        }
                                    }

                                    else {
                                        votes[5] += 1;
                                    }
                                }

                                else {
                                    if (x[1] <= 9.394999980926514) {
                                        if (x[0] <= -1.6449999809265137) {
                                            if (x[1] <= 9.200000286102295) {
                                                if (x[2] <= 5.585000038146973) {
                                                    if (x[2] <= 5.254999876022339) {
                                                        votes[5] += 1;
                                                    }

                                                    else {
                                                        votes[0] += 1;
                                                    }
                                                }

                                                else {
                                                    votes[1] += 1;
                                                }
                                            }

                                            else {
                                                votes[0] += 1;
                                            }
                                        }

                                        else {
                                            votes[1] += 1;
                                        }
                                    }

                                    else {
                                        votes[1] += 1;
                                    }
                                }
                            }
                        }

                        // tree #4
                        if (x[2] <= 7.784999847412109) {
                            if (x[1] <= 5.474999904632568) {
                                votes[2] += 1;
                            }

                            else {
                                if (x[2] <= 4.630000114440918) {
                                    if (x[1] <= 8.100000143051147) {
                                        votes[3] += 1;
                                    }

                                    else {
                                        votes[5] += 1;
                                    }
                                }

                                else {
                                    if (x[0] <= -2.509999990463257) {
                                        votes[5] += 1;
                                    }

                                    else {
                                        if (x[2] <= 5.0) {
                                            if (x[2] <= 4.920000076293945) {
                                                if (x[1] <= 9.489999771118164) {
                                                    votes[0] += 1;
                                                }

                                                else {
                                                    votes[1] += 1;
                                                }
                                            }

                                            else {
                                                votes[0] += 1;
                                            }
                                        }

                                        else {
                                            votes[1] += 1;
                                        }
                                    }
                                }
                            }
                        }

                        else {
                            votes[4] += 1;
                        }

                        // tree #5
                        if (x[2] <= 3.819999933242798) {
                            if (x[1] <= 5.450000047683716) {
                                votes[2] += 1;
                            }

                            else {
                                if (x[2] <= 3.2950000762939453) {
                                    if (x[2] <= 1.570000033825636) {
                                        votes[3] += 1;
                                    }

                                    else {
                                        votes[5] += 1;
                                    }
                                }

                                else {
                                    votes[3] += 1;
                                }
                            }
                        }

                        else {
                            if (x[1] <= 1.9449999332427979) {
                                votes[4] += 1;
                            }

                            else {
                                if (x[1] <= 9.46999979019165) {
                                    if (x[1] <= 9.394999980926514) {
                                        if (x[2] <= 4.454999923706055) {
                                            votes[5] += 1;
                                        }

                                        else {
                                            if (x[0] <= -2.825000047683716) {
                                                votes[0] += 1;
                                            }

                                            else {
                                                if (x[0] <= -2.100000023841858) {
                                                    if (x[1] <= 8.96500015258789) {
                                                        votes[1] += 1;
                                                    }

                                                    else {
                                                        votes[0] += 1;
                                                    }
                                                }

                                                else {
                                                    votes[0] += 1;
                                                }
                                            }
                                        }
                                    }

                                    else {
                                        if (x[0] <= -1.019999973475933) {
                                            votes[0] += 1;
                                        }

                                        else {
                                            votes[1] += 1;
                                        }
                                    }
                                }

                                else {
                                    if (x[0] <= -0.8849999606609344) {
                                        votes[0] += 1;
                                    }

                                    else {
                                        votes[1] += 1;
                                    }
                                }
                            }
                        }

                        // tree #6
                        if (x[2] <= 7.529999732971191) {
                            if (x[0] <= -7.9649999141693115) {
                                votes[2] += 1;
                            }

                            else {
                                if (x[1] <= 7.6499998569488525) {
                                    votes[3] += 1;
                                }

                                else {
                                    if (x[2] <= 3.409999966621399) {
                                        votes[5] += 1;
                                    }

                                    else {
                                        if (x[0] <= -0.8849999606609344) {
                                            votes[0] += 1;
                                        }

                                        else {
                                            if (x[2] <= 4.254999995231628) {
                                                votes[0] += 1;
                                            }

                                            else {
                                                votes[1] += 1;
                                            }
                                        }
                                    }
                                }
                            }
                        }

                        else {
                            votes[4] += 1;
                        }

                        // tree #7
                        if (x[1] <= 7.6499998569488525) {
                            if (x[0] <= -4.784999966621399) {
                                if (x[1] <= 5.434999942779541) {
                                    votes[2] += 1;
                                }

                                else {
                                    votes[3] += 1;
                                }
                            }

                            else {
                                votes[4] += 1;
                            }
                        }

                        else {
                            if (x[2] <= 5.019999980926514) {
                                if (x[1] <= 9.320000171661377) {
                                    votes[0] += 1;
                                }

                                else {
                                    if (x[1] <= 9.710000038146973) {
                                        if (x[2] <= 4.610000133514404) {
                                            votes[5] += 1;
                                        }

                                        else {
                                            if (x[1] <= 9.474999904632568) {
                                                votes[0] += 1;
                                            }

                                            else {
                                                votes[1] += 1;
                                            }
                                        }
                                    }

                                    else {
                                        votes[0] += 1;
                                    }
                                }
                            }

                            else {
                                if (x[0] <= -2.509999990463257) {
                                    if (x[2] <= 5.254999876022339) {
                                        votes[5] += 1;
                                    }

                                    else {
                                        votes[0] += 1;
                                    }
                                }

                                else {
                                    votes[1] += 1;
                                }
                            }
                        }

                        // tree #8
                        if (x[1] <= -0.5500000715255737) {
                            votes[4] += 1;
                        }

                        else {
                            if (x[1] <= 5.474999904632568) {
                                votes[2] += 1;
                            }

                            else {
                                if (x[1] <= 7.6499998569488525) {
                                    votes[3] += 1;
                                }

                                else {
                                    if (x[2] <= 4.509999990463257) {
                                        if (x[2] <= 3.509999990463257) {
                                            votes[5] += 1;
                                        }

                                        else {
                                            if (x[1] <= 9.475000381469727) {
                                                votes[5] += 1;
                                            }

                                            else {
                                                votes[0] += 1;
                                            }
                                        }
                                    }

                                    else {
                                        if (x[2] <= 4.900000095367432) {
                                            if (x[2] <= 4.840000152587891) {
                                                if (x[1] <= 9.509999752044678) {
                                                    votes[0] += 1;
                                                }

                                                else {
                                                    votes[1] += 1;
                                                }
                                            }

                                            else {
                                                votes[1] += 1;
                                            }
                                        }

                                        else {
                                            if (x[1] <= 9.200000286102295) {
                                                if (x[2] <= 5.254999876022339) {
                                                    votes[5] += 1;
                                                }

                                                else {
                                                    if (x[0] <= -2.625) {
                                                        votes[0] += 1;
                                                    }

                                                    else {
                                                        votes[1] += 1;
                                                    }
                                                }
                                            }

                                            else {
                                                votes[0] += 1;
                                            }
                                        }
                                    }
                                }
                            }
                        }

                        // tree #9
                        if (x[2] <= 7.784999847412109) {
                            if (x[1] <= 7.6499998569488525) {
                                if (x[2] <= 3.3899999856948853) {
                                    if (x[2] <= 1.6449999623000622) {
                                        if (x[1] <= 5.195000052452087) {
                                            votes[2] += 1;
                                        }

                                        else {
                                            votes[3] += 1;
                                        }
                                    }

                                    else {
                                        votes[2] += 1;
                                    }
                                }

                                else {
                                    if (x[0] <= -8.019999742507935) {
                                        votes[2] += 1;
                                    }

                                    else {
                                        votes[3] += 1;
                                    }
                                }
                            }

                            else {
                                if (x[1] <= 9.46999979019165) {
                                    if (x[0] <= -2.059999942779541) {
                                        if (x[1] <= 9.119999885559082) {
                                            if (x[2] <= 5.585000038146973) {
                                                votes[0] += 1;
                                            }

                                            else {
                                                votes[1] += 1;
                                            }
                                        }

                                        else {
                                            if (x[2] <= 4.745000123977661) {
                                                votes[5] += 1;
                                            }

                                            else {
                                                votes[0] += 1;
                                            }
                                        }
                                    }

                                    else {
                                        votes[0] += 1;
                                    }
                                }

                                else {
                                    if (x[2] <= 4.295000076293945) {
                                        votes[0] += 1;
                                    }

                                    else {
                                        votes[1] += 1;
                                    }
                                }
                            }
                        }

                        else {
                            votes[4] += 1;
                        }

                        // tree #10
                        if (x[2] <= 8.15999984741211) {
                            if (x[2] <= 4.509999990463257) {
                                if (x[1] <= 5.434999942779541) {
                                    votes[2] += 1;
                                }

                                else {
                                    if (x[0] <= -5.294999957084656) {
                                        votes[3] += 1;
                                    }

                                    else {
                                        if (x[1] <= 9.670000076293945) {
                                            votes[5] += 1;
                                        }

                                        else {
                                            votes[0] += 1;
                                        }
                                    }
                                }
                            }

                            else {
                                if (x[2] <= 4.840000152587891) {
                                    votes[0] += 1;
                                }

                                else {
                                    if (x[1] <= 9.394999980926514) {
                                        if (x[2] <= 5.960000038146973) {
                                            if (x[2] <= 5.059999942779541) {
                                                votes[0] += 1;
                                            }

                                            else {
                                                if (x[1] <= 8.769999980926514) {
                                                    votes[0] += 1;
                                                }

                                                else {
                                                    votes[5] += 1;
                                                }
                                            }
                                        }

                                        else {
                                            votes[1] += 1;
                                        }
                                    }

                                    else {
                                        votes[1] += 1;
                                    }
                                }
                            }
                        }

                        else {
                            votes[4] += 1;
                        }

                        // tree #11
                        if (x[2] <= 4.074999928474426) {
                            if (x[1] <= 5.450000047683716) {
                                votes[2] += 1;
                            }

                            else {
                                if (x[1] <= 8.140000104904175) {
                                    votes[3] += 1;
                                }

                                else {
                                    votes[5] += 1;
                                }
                            }
                        }

                        else {
                            if (x[1] <= 2.0400002002716064) {
                                votes[4] += 1;
                            }

                            else {
                                if (x[2] <= 4.610000133514404) {
                                    votes[5] += 1;
                                }

                                else {
                                    if (x[0] <= -1.1349999755620956) {
                                        if (x[0] <= -2.100000023841858) {
                                            if (x[1] <= 8.724999904632568) {
                                                votes[1] += 1;
                                            }

                                            else {
                                                if (x[1] <= 9.28000020980835) {
                                                    if (x[1] <= 9.039999961853027) {
                                                        votes[0] += 1;
                                                    }

                                                    else {
                                                        votes[5] += 1;
                                                    }
                                                }

                                                else {
                                                    votes[0] += 1;
                                                }
                                            }
                                        }

                                        else {
                                            votes[0] += 1;
                                        }
                                    }

                                    else {
                                        votes[1] += 1;
                                    }
                                }
                            }
                        }

                        // tree #12
                        if (x[0] <= -5.509999990463257) {
                            if (x[2] <= 3.509999990463257) {
                                if (x[0] <= -8.019999742507935) {
                                    votes[2] += 1;
                                }

                                else {
                                    votes[3] += 1;
                                }
                            }

                            else {
                                votes[2] += 1;
                            }
                        }

                        else {
                            if (x[0] <= -0.7649999707937241) {
                                if (x[0] <= -2.059999942779541) {
                                    if (x[2] <= 5.254999876022339) {
                                        votes[5] += 1;
                                    }

                                    else {
                                        if (x[0] <= -3.0600000619888306) {
                                            votes[0] += 1;
                                        }

                                        else {
                                            votes[1] += 1;
                                        }
                                    }
                                }

                                else {
                                    if (x[2] <= 7.355000257492065) {
                                        if (x[2] <= 3.409999966621399) {
                                            votes[5] += 1;
                                        }

                                        else {
                                            votes[0] += 1;
                                        }
                                    }

                                    else {
                                        votes[4] += 1;
                                    }
                                }
                            }

                            else {
                                if (x[0] <= 0.0) {
                                    votes[1] += 1;
                                }

                                else {
                                    votes[0] += 1;
                                }
                            }
                        }

                        // tree #13
                        if (x[1] <= 5.490000009536743) {
                            if (x[0] <= -5.649999976158142) {
                                votes[2] += 1;
                            }

                            else {
                                votes[4] += 1;
                            }
                        }

                        else {
                            if (x[1] <= 7.6499998569488525) {
                                votes[3] += 1;
                            }

                            else {
                                if (x[0] <= -2.509999990463257) {
                                    if (x[1] <= 9.019999980926514) {
                                        votes[0] += 1;
                                    }

                                    else {
                                        votes[5] += 1;
                                    }
                                }

                                else {
                                    if (x[2] <= 4.274999976158142) {
                                        if (x[0] <= -1.4899999499320984) {
                                            votes[5] += 1;
                                        }

                                        else {
                                            votes[0] += 1;
                                        }
                                    }

                                    else {
                                        if (x[2] <= 5.0) {
                                            if (x[0] <= -1.3749999701976776) {
                                                votes[0] += 1;
                                            }

                                            else {
                                                votes[1] += 1;
                                            }
                                        }

                                        else {
                                            votes[1] += 1;
                                        }
                                    }
                                }
                            }
                        }

                        // tree #14
                        if (x[2] <= 7.529999732971191) {
                            if (x[0] <= -5.509999990463257) {
                                if (x[0] <= -8.004999876022339) {
                                    votes[2] += 1;
                                }

                                else {
                                    votes[3] += 1;
                                }
                            }

                            else {
                                if (x[0] <= -0.9600000232458115) {
                                    if (x[0] <= -2.509999990463257) {
                                        if (x[0] <= -3.2949999570846558) {
                                            if (x[0] <= -3.725000023841858) {
                                                votes[0] += 1;
                                            }

                                            else {
                                                if (x[2] <= 4.454999923706055) {
                                                    votes[5] += 1;
                                                }

                                                else {
                                                    votes[0] += 1;
                                                }
                                            }
                                        }

                                        else {
                                            votes[5] += 1;
                                        }
                                    }

                                    else {
                                        votes[0] += 1;
                                    }
                                }

                                else {
                                    votes[1] += 1;
                                }
                            }
                        }

                        else {
                            votes[4] += 1;
                        }

                        // tree #15
                        if (x[2] <= 8.15999984741211) {
                            if (x[0] <= -5.509999990463257) {
                                if (x[0] <= -8.004999876022339) {
                                    votes[2] += 1;
                                }

                                else {
                                    votes[3] += 1;
                                }
                            }

                            else {
                                if (x[2] <= 4.610000133514404) {
                                    if (x[0] <= -1.7649999856948853) {
                                        votes[5] += 1;
                                    }

                                    else {
                                        votes[0] += 1;
                                    }
                                }

                                else {
                                    if (x[2] <= 4.920000076293945) {
                                        if (x[1] <= 9.234999656677246) {
                                            votes[0] += 1;
                                        }

                                        else {
                                            votes[1] += 1;
                                        }
                                    }

                                    else {
                                        if (x[2] <= 5.960000038146973) {
                                            if (x[1] <= 9.335000038146973) {
                                                if (x[1] <= 8.769999980926514) {
                                                    votes[0] += 1;
                                                }

                                                else {
                                                    if (x[0] <= -2.4499999284744263) {
                                                        votes[5] += 1;
                                                    }

                                                    else {
                                                        votes[0] += 1;
                                                    }
                                                }
                                            }

                                            else {
                                                votes[1] += 1;
                                            }
                                        }

                                        else {
                                            votes[1] += 1;
                                        }
                                    }
                                }
                            }
                        }

                        else {
                            votes[4] += 1;
                        }

                        // tree #16
                        if (x[1] <= -0.2549999952316284) {
                            votes[4] += 1;
                        }

                        else {
                            if (x[2] <= 4.610000133514404) {
                                if (x[1] <= 8.000000238418579) {
                                    if (x[1] <= 5.474999904632568) {
                                        votes[2] += 1;
                                    }

                                    else {
                                        votes[3] += 1;
                                    }
                                }

                                else {
                                    if (x[2] <= 3.509999990463257) {
                                        votes[5] += 1;
                                    }

                                    else {
                                        if (x[2] <= 4.134999990463257) {
                                            votes[0] += 1;
                                        }

                                        else {
                                            votes[5] += 1;
                                        }
                                    }
                                }
                            }

                            else {
                                if (x[1] <= 9.335000038146973) {
                                    if (x[2] <= 5.585000038146973) {
                                        votes[0] += 1;
                                    }

                                    else {
                                        votes[1] += 1;
                                    }
                                }

                                else {
                                    votes[1] += 1;
                                }
                            }
                        }

                        // tree #17
                        if (x[0] <= -7.9649999141693115) {
                            votes[2] += 1;
                        }

                        else {
                            if (x[2] <= 7.784999847412109) {
                                if (x[1] <= 7.745000123977661) {
                                    votes[3] += 1;
                                }

                                else {
                                    if (x[2] <= 4.630000114440918) {
                                        if (x[1] <= 9.670000076293945) {
                                            votes[5] += 1;
                                        }

                                        else {
                                            votes[0] += 1;
                                        }
                                    }

                                    else {
                                        if (x[1] <= 9.46999979019165) {
                                            if (x[1] <= 8.724999904632568) {
                                                votes[1] += 1;
                                            }

                                            else {
                                                if (x[2] <= 5.019999980926514) {
                                                    votes[0] += 1;
                                                }

                                                else {
                                                    if (x[2] <= 5.119999885559082) {
                                                        votes[1] += 1;
                                                    }

                                                    else {
                                                        votes[5] += 1;
                                                    }
                                                }
                                            }
                                        }

                                        else {
                                            votes[1] += 1;
                                        }
                                    }
                                }
                            }

                            else {
                                votes[4] += 1;
                            }
                        }

                        // tree #18
                        if (x[0] <= -7.9649999141693115) {
                            votes[2] += 1;
                        }

                        else {
                            if (x[2] <= 8.15999984741211) {
                                if (x[0] <= -1.3700000047683716) {
                                    if (x[2] <= 3.7050000429153442) {
                                        if (x[1] <= 8.254999876022339) {
                                            votes[3] += 1;
                                        }

                                        else {
                                            votes[5] += 1;
                                        }
                                    }

                                    else {
                                        if (x[1] <= 9.394999980926514) {
                                            if (x[2] <= 4.630000114440918) {
                                                votes[5] += 1;
                                            }

                                            else {
                                                if (x[0] <= -2.825000047683716) {
                                                    votes[0] += 1;
                                                }

                                                else {
                                                    if (x[1] <= 8.885000228881836) {
                                                        votes[1] += 1;
                                                    }

                                                    else {
                                                        votes[0] += 1;
                                                    }
                                                }
                                            }
                                        }

                                        else {
                                            votes[0] += 1;
                                        }
                                    }
                                }

                                else {
                                    votes[1] += 1;
                                }
                            }

                            else {
                                votes[4] += 1;
                            }
                        }

                        // tree #19
                        if (x[1] <= 5.490000009536743) {
                            if (x[1] <= -0.2549999952316284) {
                                votes[4] += 1;
                            }

                            else {
                                votes[2] += 1;
                            }
                        }

                        else {
                            if (x[1] <= 7.6499998569488525) {
                                votes[3] += 1;
                            }

                            else {
                                if (x[0] <= -2.509999990463257) {
                                    if (x[2] <= 5.254999876022339) {
                                        if (x[1] <= 9.019999980926514) {
                                            votes[0] += 1;
                                        }

                                        else {
                                            votes[5] += 1;
                                        }
                                    }

                                    else {
                                        votes[0] += 1;
                                    }
                                }

                                else {
                                    if (x[0] <= -0.8849999606609344) {
                                        if (x[2] <= 5.4100000858306885) {
                                            votes[0] += 1;
                                        }

                                        else {
                                            votes[1] += 1;
                                        }
                                    }

                                    else {
                                        if (x[0] <= 0.0) {
                                            votes[1] += 1;
                                        }

                                        else {
                                            votes[0] += 1;
                                        }
                                    }
                                }
                            }
                        }

                        // tree #20
                        if (x[2] <= 7.784999847412109) {
                            if (x[0] <= -8.019999742507935) {
                                votes[2] += 1;
                            }

                            else {
                                if (x[2] <= 3.6449999809265137) {
                                    if (x[0] <= -4.509999930858612) {
                                        votes[3] += 1;
                                    }

                                    else {
                                        votes[5] += 1;
                                    }
                                }

                                else {
                                    if (x[2] <= 4.134999990463257) {
                                        votes[0] += 1;
                                    }

                                    else {
                                        if (x[2] <= 4.920000076293945) {
                                            if (x[0] <= -1.3949999511241913) {
                                                votes[5] += 1;
                                            }

                                            else {
                                                votes[1] += 1;
                                            }
                                        }

                                        else {
                                            if (x[2] <= 5.079999923706055) {
                                                votes[0] += 1;
                                            }

                                            else {
                                                if (x[0] <= -3.409999966621399) {
                                                    votes[0] += 1;
                                                }

                                                else {
                                                    if (x[2] <= 5.509999990463257) {
                                                        votes[5] += 1;
                                                    }

                                                    else {
                                                        votes[1] += 1;
                                                    }
                                                }
                                            }
                                        }
                                    }
                                }
                            }
                        }

                        else {
                            votes[4] += 1;
                        }

                        // return argmax of votes
                        uint8_t classIdx = 0;
                        float maxVotes = votes[0];

                        for (uint8_t i = 1; i < 6; i++) {
                            if (votes[i] > maxVotes) {
                                classIdx = i;
                                maxVotes = votes[i];
                            }
                        }

                        return classIdx;
                    }

                protected:
                };
            }
        }
    }